,samples_load,percentiles_prior_l,percentiles_prior_u,mean_prediction_prior
0,0.0,-2.9900334385255845e-05,2.8043237363114064e-05,-2.718303438535819e-06
1,0.10101010101010102,-0.0019537342163094226,1.4952794086824322e-06,-0.00030068013356256964
2,0.20202020202020204,-0.0037454828998730585,-3.23559709794111e-05,-0.0006078886341033225
3,0.3030303030303031,-0.005405146385076164,-7.351051380116656e-05,-0.0009236604133759615
4,0.4040404040404041,-0.006932724671918737,-0.00012196834905658388,-0.0012472788387400816
5,0.5050505050505051,-0.00832821776040078,-0.0001777294767456631,-0.0015780088727441269
6,0.6060606060606062,-0.009591625650522292,-0.00024079389686840427,-0.001915110683496807
7,0.7070707070707072,-0.010722948342283272,-0.0003111616094248073,-0.0022578513723706265
8,0.8080808080808082,-0.01172218583568372,-0.00038883261441487226,-0.002605514822041732
9,0.9090909090909092,-0.012589338130723637,-0.0004738069118385991,-0.002957410140554263
10,1.0101010101010102,-0.013324405227403024,-0.0005660845016959878,-0.0033128792126728215
11,1.1111111111111112,-0.01392738712572188,-0.0006656653839870384,-0.003671303457566917
12,1.2121212121212124,-0.014398283825680206,-0.0007725495587117511,-0.004032109296336525
13,1.3131313131313134,-0.014791720137869857,-0.0008867370258701258,-0.004394771457969917
14,1.4141414141414144,-0.015162320872882705,-0.0010082277854621619,-0.00475881340003348
15,1.5151515151515154,-0.015510086030718738,-0.00113702183748786,-0.005123804790985381
16,1.6161616161616164,-0.015835015611377963,-0.0012731191819472204,-0.005489356870753436
17,1.7171717171717173,-0.016137109614860378,-0.0014165198188402423,-0.005855117112041573
18,1.8181818181818183,-0.016416368041165984,-0.0015672237481669262,-0.006220764626621176
19,1.9191919191919193,-0.01667279089029478,-0.0017252309699272719,-0.006586007219854023
20,2.0202020202020203,-0.016906378162246768,-0.0018905414841212799,-0.006950580235349324
21,2.1212121212121215,-0.017119903581049783,-0.0020631552907489498,-0.007314246784708267
22,2.2222222222222223,-0.017316140870731668,-0.002243072389810281,-0.007676798866548756
23,2.3232323232323235,-0.01749509003129242,-0.0024302927813052745,-0.008038059147641032
24,2.4242424242424248,-0.017656751062732047,-0.0026248164652339302,-0.00839788346638807
25,2.5252525252525255,-0.01780112396505054,-0.002826643441596247,-0.008756164106641614
26,2.6262626262626267,-0.0179282087382479,-0.003035773710392227,-0.009112833523100756
27,2.7272727272727275,-0.018038005382324133,-0.003252207271621867,-0.009467867722529468
28,2.8282828282828287,-0.018130513897279234,-0.0034759441252851706,-0.009821288264035785
29,2.9292929292929295,-0.018232941186185483,-0.003706984271382135,-0.010173162011526453
30,3.0303030303030307,-0.018372494152115146,-0.0039453277099127625,-0.01052359822770641
31,3.1313131313131315,-0.018549172795068233,-0.00419097444087705,-0.010872743042266424
32,3.2323232323232327,-0.01876297711504474,-0.004443924464275002,-0.01122077155241892
33,3.333333333333334,-0.01901390711204467,-0.004704177780106614,-0.011567877885211051
34,3.4343434343434347,-0.019301962786068015,-0.004971734388371888,-0.01191426371150732
35,3.535353535353536,-0.019627144137114787,-0.005246594289070825,-0.012260126092146804
36,3.6363636363636367,-0.01998945116518497,-0.005528757482203423,-0.01260564598272095
37,3.737373737373738,-0.020368567472877217,-0.005818223967769683,-0.01295097881903034
38,3.8383838383838387,-0.020744176662790152,-0.006114993745769604,-0.013296248070383897
39,3.93939393939394,-0.021116278734923784,-0.006419066816203189,-0.013641541662026075
40,4.040404040404041,-0.021484873689278098,-0.006736949295901151,-0.01398691035881503
41,4.141414141414142,-0.02184996152585311,-0.007075147301694202,-0.014332367225373106
42,4.242424242424243,-0.02221154224464881,-0.007433660833582345,-0.014677888274414002
43,4.343434343434344,-0.022569615845665202,-0.007812489891565583,-0.015023415778823159
44,4.444444444444445,-0.02292418232890229,-0.008211634475643907,-0.015368866410642583
45,4.545454545454546,-0.02328275763558192,-0.008631094585817326,-0.015714145584029664
46,4.646464646464647,-0.023652857706925958,-0.009070870222085838,-0.016059167164369774
47,4.747474747474748,-0.024034482542934405,-0.00953096138444944,-0.016403875031767195
48,4.8484848484848495,-0.02442763214360725,-0.00998732583263359,-0.01674826123560992
49,4.94949494949495,-0.024832306508944503,-0.010415921326363738,-0.01709237564874952
50,5.050505050505051,-0.025248505638946157,-0.010816747865639891,-0.017436324170281785
51,5.151515151515152,-0.025676229533612226,-0.011189805450462048,-0.017780255712258247
52,5.2525252525252535,-0.026115478192942694,-0.011535094080830208,-0.018124341081321604
53,5.353535353535354,-0.026561044651033414,-0.011852613756744365,-0.01846874837426178
54,5.454545454545455,-0.027007721941980246,-0.012142364478204527,-0.01881361938166833
55,5.555555555555556,-0.02745551006578318,-0.012404346245210692,-0.01915905025532477
56,5.6565656565656575,-0.02790440902244222,-0.012648915339854924,-0.019505078203449575
57,5.757575757575759,-0.02835441881195737,-0.012886428044229284,-0.019851674878092706
58,5.858585858585859,-0.028805539434328613,-0.013116884358333775,-0.02019874652222756
59,5.95959595959596,-0.029257770889555973,-0.013340284282168397,-0.0205461405183818
60,6.060606060606061,-0.029711113177639435,-0.013556627815733148,-0.020893657337794903
61,6.161616161616163,-0.030162292076629488,-0.01376591495902803,-0.02124106597249882
62,6.262626262626263,-0.03060803336457661,-0.013968145712053036,-0.02158812012761696
63,6.363636363636364,-0.031048337041480807,-0.014163320074808179,-0.021934572339215256
64,6.464646464646465,-0.031483203107342074,-0.014363251678081572,-0.02228018410983942
65,6.565656565656567,-0.031912631562160426,-0.014579754152661337,-0.02262473190902112
66,6.666666666666668,-0.032336622405935836,-0.01481282749854748,-0.022968010725033915
67,6.767676767676768,-0.032755175638668324,-0.015062471715739989,-0.0233098378700682
68,6.868686868686869,-0.03316829126035789,-0.01532868680423888,-0.0236500593677705
69,6.969696969696971,-0.03356910203377528,-0.015611472764044138,-0.0239885596027808
70,7.070707070707072,-0.03395074072169127,-0.015910829595155773,-0.02432527276091028
71,7.171717171717172,-0.03431320732410586,-0.01622675729757378,-0.024660193016024456
72,7.272727272727273,-0.03465650184101903,-0.016546729702870598,-0.024993380301190016
73,7.373737373737375,-0.03498062427243081,-0.016858220642618663,-0.025324960073454243
74,7.474747474747476,-0.03528557461834117,-0.017161230116817975,-0.02565511815630543
75,7.575757575757577,-0.03557135287875013,-0.017455758125468537,-0.02598409426647013
76,7.676767676767677,-0.03583795905365768,-0.017741804668570338,-0.026312178772802765
77,7.777777777777779,-0.03613027838921555,-0.01801936974612339,-0.02663971569016934
78,7.87878787878788,-0.03649319613157543,-0.01828845335812769,-0.026967111118529178
79,7.979797979797981,-0.03692671228073736,-0.018549055504583238,-0.02729484183892342
80,8.080808080808081,-0.037430826836701306,-0.018789897603465566,-0.027623455876662706
81,8.181818181818183,-0.038005539799467296,-0.01899970107275021,-0.027953557475732124
82,8.282828282828284,-0.0386508511690353,-0.019178465912437173,-0.02828577350782381
83,8.383838383838384,-0.039366760945405324,-0.019326192122526453,-0.028620705256215337
84,8.484848484848486,-0.0401532691285774,-0.01944287970301805,-0.028958875737975485
85,8.585858585858587,-0.040947249140384626,-0.019528528653911963,-0.02930068527465968
86,8.686868686868689,-0.041685574402660186,-0.019583138975208195,-0.029646385521327374
87,8.787878787878789,-0.04236824491540408,-0.01960671066690674,-0.02999607562491634
88,8.88888888888889,-0.042995260678616275,-0.01962332220227646,-0.030349716512681153
89,8.989898989898991,-0.043566621692296824,-0.019657052054586194,-0.030707153858725366
90,9.090909090909092,-0.044082327956445684,-0.01970790022383595,-0.031068139210076597
91,9.191919191919194,-0.04454237947106286,-0.019775866710025722,-0.03143234211671609
92,9.292929292929294,-0.04494677623614836,-0.019860951513155506,-0.03179935196166304
93,9.393939393939394,-0.045295518251702194,-0.01996315463322532,-0.03216867363743592
94,9.494949494949497,-0.04558860551772435,-0.020082476070235146,-0.03253972376688362
95,9.595959595959597,-0.045826038034214825,-0.02021891582418499,-0.032911832753479135
96,9.696969696969699,-0.04600781580117363,-0.020372473895074857,-0.033284253306197165
97,9.7979797979798,-0.046133938818600756,-0.020543150282904734,-0.033656170415570466
98,9.8989898989899,-0.046204407086496195,-0.020730944987674638,-0.03402670383133973
99,10.0,-0.04621922060485997,-0.020935858009384554,-0.03439489410715589
