,samples_load,percentiles_post_error_l,percentiles_post_error_u,mean_prediction_post_error
0,0.0,-0.00017146414387159676,7.08148800439357e-05,-4.894579806873034e-05
1,0.10101010101010102,-0.0001798623992102796,7.84937046314612e-05,-5.36061366198138e-05
2,0.20202020202020204,-0.00019083452931135844,8.63462775110391e-05,-5.8842289458532796e-05
3,0.3030303030303031,-0.00020330639802947165,9.071286468128588e-05,-6.470501357209706e-05
4,0.4040404040404041,-0.00022040159753482067,9.461632688932846e-05,-7.127979111459842e-05
5,0.5050505050505051,-0.00023486434599037802,9.777156160521381e-05,-7.90705338306551e-05
6,0.6060606060606062,-0.0002558399975159603,9.947181945920276e-05,-8.67826988439796e-05
7,0.7070707070707072,-0.00027019792867572125,9.747928497848162e-05,-9.528857312863297e-05
8,0.8080808080808082,-0.0002936300759896033,9.770778074471579e-05,-0.00010470510955142805
9,0.9090909090909092,-0.0003122781743223401,9.08976209835619e-05,-0.00011384144140801501
10,1.0101010101010102,-0.0003347739458296349,9.097154892071797e-05,-0.00012430472909659229
11,1.1111111111111112,-0.00034937893278301805,8.462791596151886e-05,-0.00013445831214668278
12,1.2121212121212124,-0.00037196259559460026,7.931781515769449e-05,-0.00014573767157164384
13,1.3131313131313134,-0.00039728667511370203,7.484337215271929e-05,-0.0001564876435271874
14,1.4141414141414144,-0.0004123206188002526,6.828609663587243e-05,-0.00016805401934487341
15,1.5151515151515154,-0.0004361686871368168,6.532075343016266e-05,-0.00017975380057243037
16,1.6161616161616164,-0.000454203164259016,5.73331898762543e-05,-0.00019182344024781575
17,1.7171717171717173,-0.0004788476463546709,5.5446891708191137e-05,-0.00020437926894979812
18,1.8181818181818183,-0.000495699932208785,4.772801742040668e-05,-0.00021661171833654868
19,1.9191919191919193,-0.0005144801691898108,3.470929162590386e-05,-0.0002293606676147334
20,2.0202020202020203,-0.000542332482225871,2.9736157492187214e-05,-0.00024228112126257437
21,2.1212121212121215,-0.0005624251945728994,2.080288856847357e-05,-0.0002558350152676873
22,2.2222222222222223,-0.0005771522041342201,1.2039968998361884e-05,-0.0002691630768354864
23,2.3232323232323235,-0.000601347932666431,5.1422211524857846e-06,-0.000282775452628716
24,2.4242424242424248,-0.0006221743773902801,-1.420730232978243e-06,-0.00029644681818145034
25,2.5252525252525255,-0.0006411701271328848,-1.1461530173513895e-05,-0.00031060301419256575
26,2.6262626262626267,-0.000661400457618164,-1.927736676488926e-05,-0.00032494578732280877
27,2.7272727272727275,-0.0006782220961377509,-2.9480965851704092e-05,-0.0003392130282725256
28,2.8282828282828287,-0.0006981976305099857,-3.774410617481299e-05,-0.00035389949042995687
29,2.9292929292929295,-0.0007138724709556863,-4.774046162744782e-05,-0.00036877499081859226
30,3.0303030303030307,-0.000735739049827353,-6.305169256639124e-05,-0.0003841963537087482
31,3.1313131313131315,-0.0007528395680862471,-7.092701820109994e-05,-0.0003993840635335408
32,3.2323232323232327,-0.0007750111467691483,-8.053224323150631e-05,-0.0004148437472378959
33,3.333333333333334,-0.0007903012103666345,-9.31788412303252e-05,-0.00043065426326290197
34,3.4343434343434347,-0.0008114874556692294,-0.00010459916572646075,-0.0004472488543564665
35,3.535353535353536,-0.0008261121776640663,-0.00011303071342467844,-0.0004636847509352983
36,3.6363636363636367,-0.0008471646262864609,-0.00013207778584094104,-0.00048065087322353667
37,3.737373737373738,-0.0008669592940317758,-0.00014497933341038282,-0.0004975140586477332
38,3.8383838383838387,-0.000883037205299298,-0.00016105354549016877,-0.0005149922360758442
39,3.93939393939394,-0.0009036428638311729,-0.00017578606907378056,-0.0005331452908768435
40,4.040404040404041,-0.000920149965554632,-0.0001897248330920543,-0.0005512958075516261
41,4.141414141414142,-0.0009407453023726588,-0.00020203081998354625,-0.0005699740018533456
42,4.242424242424243,-0.0009558497718476352,-0.00021729590338754497,-0.0005894682219683572
43,4.343434343434344,-0.0009785496981195242,-0.00023314004354494302,-0.0006087187684743335
44,4.444444444444445,-0.000993031721597412,-0.00025491081264507424,-0.0006290455181628371
45,4.545454545454546,-0.0010204451678597474,-0.0002638005471048197,-0.0006494040101553961
46,4.646464646464647,-0.0010368584272877513,-0.0002825016762993616,-0.0006704133094805507
47,4.747474747474748,-0.0010585336914777162,-0.0002972767470182351,-0.0006916836111301275
48,4.8484848484848495,-0.001083071317553174,-0.0003121289940527363,-0.0007140228406579117
49,4.94949494949495,-0.0011089416741585211,-0.00032834732969232015,-0.0007362517447450885
50,5.050505050505051,-0.0011312559447196739,-0.00034443304686990564,-0.0007590461932592012
51,5.151515151515152,-0.0011547201847980863,-0.00036085486147951237,-0.0007827995768764081
52,5.2525252525252535,-0.0011793675807688223,-0.00038343590194372457,-0.0008066882365857801
53,5.353535353535354,-0.001205344215531358,-0.0004006179673735586,-0.0008309027987561544
54,5.454545454545455,-0.0012333564309928683,-0.00041735656867182764,-0.000856047699286275
55,5.555555555555556,-0.001266738438209969,-0.0004341796045143181,-0.0008812711058559293
56,5.6565656565656575,-0.0012917717221205532,-0.0004592539240062391,-0.0009069586991771915
57,5.757575757575759,-0.0013271379860264176,-0.0004837256391744625,-0.0009335675684725086
58,5.858585858585859,-0.0013492670433338605,-0.0005031375971512852,-0.0009601430014457156
59,5.95959595959596,-0.0013818978684935577,-0.0005265911179060453,-0.0009872259134827666
60,6.060606060606061,-0.0014132886529048525,-0.0005492975380756024,-0.0010148124678316136
61,6.161616161616163,-0.0014376197904558082,-0.0005733468208284626,-0.0010424788991871224
62,6.262626262626263,-0.0014755569605048896,-0.0005940366745881494,-0.0010708117846564883
63,6.363636363636364,-0.0015060569445648922,-0.0006182749246556886,-0.001098878330204354
64,6.464646464646465,-0.0015356589810025902,-0.0006465225201822738,-0.001127184966449724
65,6.565656565656567,-0.001568243649617617,-0.0006763913345861477,-0.0011556492562300267
66,6.666666666666668,-0.0015982107748304549,-0.0007033654658181816,-0.0011843773706662214
67,6.767676767676768,-0.0016290887733833917,-0.0007284423390970441,-0.0012131291699782555
68,6.868686868686869,-0.0016586934540952303,-0.0007521678227897711,-0.0012417037483570788
69,6.969696969696971,-0.001684902629348866,-0.0007783728598350048,-0.0012700752147479567
70,7.070707070707072,-0.0017159834779756993,-0.0008070306201558383,-0.0012985386335727762
71,7.171717171717172,-0.0017481650944107061,-0.000831793466702857,-0.0013264758032506781
72,7.272727272727273,-0.0017760745697939632,-0.0008479363715275278,-0.0013540683153358097
73,7.373737373737375,-0.0018022348283099645,-0.0008728511184488589,-0.0013812613669440445
74,7.474747474747476,-0.0018299556967694625,-0.0008916219819851894,-0.001407541005783171
75,7.575757575757577,-0.0018543131415329362,-0.0009154523791754846,-0.0014332637207826143
76,7.676767676767677,-0.0018822502836837122,-0.0009261546644306855,-0.0014583678407405693
77,7.777777777777779,-0.001905592879228771,-0.0009396913723479043,-0.0014821793598247368
78,7.87878787878788,-0.0019358837171478342,-0.0009567844985687953,-0.0015053654145154088
79,7.979797979797981,-0.0019617136433591324,-0.0009570616915235876,-0.0015274912887232263
80,8.080808080808081,-0.0019890595264067485,-0.0009628007561949299,-0.00154791317623296
81,8.181818181818183,-0.0020150539998239113,-0.0009615959736379513,-0.0015668538574627566
82,8.282828282828284,-0.002040603084034892,-0.0009570193862091597,-0.0015841057319060609
83,8.383838383838384,-0.002067218210434742,-0.0009490077187332532,-0.0015996040768754658
84,8.484848484848486,-0.00209511302312738,-0.0009351570344695503,-0.0016139769147058844
85,8.585858585858587,-0.002121289945199283,-0.0009122599086454823,-0.0016257686342442857
86,8.686868686868689,-0.0021494651252825622,-0.0008946008357982558,-0.0016350868026402342
87,8.787878787878789,-0.0021767720500688367,-0.0008565638044469889,-0.0016425838808342835
88,8.88888888888889,-0.002205866697187964,-0.0008264588565374629,-0.001647076235933339
89,8.989898989898991,-0.0022306414897853813,-0.0007944676661692268,-0.0016490651175735753
90,9.090909090909092,-0.0022525352508198505,-0.0007555472783050077,-0.0016480610476257006
91,9.191919191919194,-0.002277039550597546,-0.0007072912230207158,-0.001643801559383456
92,9.292929292929294,-0.0022980908957472945,-0.0006473396738124646,-0.001636670431485715
93,9.393939393939394,-0.0023218634918863237,-0.0005935520422339347,-0.0016258477878715255
94,9.494949494949497,-0.002341558734698667,-0.0005178153580973436,-0.0016114034280114244
95,9.595959595959597,-0.0023622335878713046,-0.000441709905062951,-0.0015931042914722861
96,9.696969696969699,-0.0023820302019702646,-0.00035971183883575273,-0.0015712981445844523
97,9.7979797979798,-0.0023964998229739983,-0.0002668848827247224,-0.0015443564598299527
98,9.8989898989899,-0.0024193637860411106,-0.00016728449662649163,-0.0015133955929144457
99,10.0,-0.002430517885606031,-6.685309777718444e-05,-0.0014780866069368096
