,samples_load,percentiles_post_error_l,percentiles_post_error_u,mean_prediction_post_error
0,0.0,-0.0002838349243179927,0.00025819314875485467,7.159574376303042e-05
1,0.10101010101010102,-0.000649442573139713,-5.8372725096681655e-05,-0.00027877160944899824
2,0.20202020202020204,-0.0010198642671069907,-0.0003747216226067434,-0.0006292238531867675
3,0.3030303030303031,-0.0013896829444483038,-0.0006933744703824749,-0.0009798417995465645
4,0.4040404040404041,-0.0017612275476198713,-0.001013154101195888,-0.0013307976041106054
5,0.5050505050505051,-0.0021285409715416427,-0.0013330650718531574,-0.0016826534202439099
6,0.6060606060606062,-0.002492909305112934,-0.0016574676934984773,-0.00203418296819394
7,0.7070707070707072,-0.0028626048924683834,-0.0019863354303017175,-0.002386335341258854
8,0.8080808080808082,-0.0032300723727760956,-0.0023173398022610604,-0.0027392837327639445
9,0.9090909090909092,-0.0035922221487528195,-0.0026504321953928593,-0.0030919018839331703
10,1.0101010101010102,-0.003961808659216156,-0.002987552511660688,-0.0034458540681065546
11,1.1111111111111112,-0.004328170723851014,-0.00332612880335348,-0.00379955985563031
12,1.2121212121212124,-0.0046875709945897485,-0.0036676651955254483,-0.004154510746771725
13,1.3131313131313134,-0.005049791889451325,-0.0040124503095023455,-0.004509099125485489
14,1.4141414141414144,-0.005411777429815144,-0.004360486797235269,-0.004864722396987362
15,1.5151515151515154,-0.005773244349164304,-0.004705463711066853,-0.005220742691300325
16,1.6161616161616164,-0.006135344035071454,-0.0050590790541959535,-0.005577439280245461
17,1.7171717171717173,-0.006493435426169673,-0.00541430685379889,-0.005934967803114762
18,1.8181818181818183,-0.006856331850887723,-0.00577034731600906,-0.006292556079687754
19,1.9191919191919193,-0.007213163852340323,-0.006121830556674284,-0.00665108061394985
20,2.0202020202020203,-0.007576189109102857,-0.006481476309640627,-0.007010227265402896
21,2.1212121212121215,-0.007933231690869586,-0.006842507651734484,-0.007370489114129106
22,2.2222222222222223,-0.00829428925074577,-0.007205196972597674,-0.0077310351068928885
23,2.3232323232323235,-0.008651290202835497,-0.007564793278591681,-0.00809240168494203
24,2.4242424242424248,-0.009014805753072074,-0.007927851314599733,-0.008454387958749384
25,2.5252525252525255,-0.009372444525502677,-0.008296804510386908,-0.00881744104085917
26,2.6262626262626267,-0.009732811187264191,-0.008658714931050181,-0.00918128158771347
27,2.7272727272727275,-0.010095645575490338,-0.00902823473367135,-0.009545665839148702
28,2.8282828282828287,-0.010457262232090236,-0.009400715194747762,-0.009911105055312182
29,2.9292929292929295,-0.010815344860779973,-0.00977260587568524,-0.010277383724131662
30,3.0303030303030307,-0.011180674669565096,-0.010142404697714562,-0.010644871496454478
31,3.1313131313131315,-0.011548135906832428,-0.010518583322487687,-0.011012799223987412
32,3.2323232323232327,-0.011912704379513278,-0.010890642630864016,-0.011381683062255109
33,3.333333333333334,-0.012277582062383207,-0.011264635923587736,-0.011751610636038936
34,3.4343434343434347,-0.012647781439340472,-0.01163681383345086,-0.012123022383929021
35,3.535353535353536,-0.013018590231988906,-0.012015395752002474,-0.01249498243864927
36,3.6363636363636367,-0.01338909218187815,-0.012394816448463537,-0.01286818542459024
37,3.737373737373738,-0.013757291515087982,-0.012773004373544802,-0.013242002157354625
38,3.8383838383838387,-0.014126201462980693,-0.013154514706257397,-0.013617156043959149
39,3.93939393939394,-0.014502182472092494,-0.013530551057162958,-0.013993710595328872
40,4.040404040404041,-0.014879402094466898,-0.013911188881850079,-0.014370989871008757
41,4.141414141414142,-0.015247728306605274,-0.014292370761896605,-0.014749527550964146
42,4.242424242424243,-0.015624343755771214,-0.01467413969162837,-0.015129615256523324
43,4.343434343434344,-0.01600461978594191,-0.01505079553306061,-0.015510195930151023
44,4.444444444444445,-0.01637722673120075,-0.015438490803819729,-0.01589259184792721
45,4.545454545454546,-0.016756160455639817,-0.015820457224166796,-0.016275761819117388
46,4.646464646464647,-0.017139246975042145,-0.016206550826460314,-0.0166603284618979
47,4.747474747474748,-0.017519585135454877,-0.016591161108204557,-0.017045904709066275
48,4.8484848484848495,-0.017906134214390357,-0.01698541848615971,-0.01743330371621666
49,4.94949494949495,-0.0182914873511758,-0.017372189824140696,-0.017821351098058064
50,5.050505050505051,-0.018684749538990877,-0.01776776452634501,-0.018210726286029263
51,5.151515151515152,-0.01906621370228237,-0.01815898746247129,-0.018601830409941494
52,5.2525252525252535,-0.019458839518652744,-0.01855230672195075,-0.018993848310342447
53,5.353535353535354,-0.019847564875074677,-0.018944684877823838,-0.019386978107491695
54,5.454545454545455,-0.020238115637137854,-0.019336264775893813,-0.01978183346766079
55,5.555555555555556,-0.020632310130373168,-0.019725454401859917,-0.020177573867196753
56,5.6565656565656575,-0.021027023409513745,-0.020126732888573938,-0.020574596622229564
57,5.757575757575759,-0.02142552112836369,-0.020520073358841335,-0.020973374012867748
58,5.858585858585859,-0.021827135966564742,-0.020916166342574767,-0.021372966659990965
59,5.95959595959596,-0.0222249960065346,-0.021313149397574158,-0.021773929487849307
60,6.060606060606061,-0.022631815435680384,-0.021713672920012916,-0.022176278153108592
61,6.161616161616163,-0.02303648289902907,-0.022114129520881314,-0.0225796108810777
62,6.262626262626263,-0.023442850907667036,-0.02251437949042279,-0.022984535132467728
63,6.363636363636364,-0.02384890102297242,-0.022916250394651533,-0.02339014164983452
64,6.464646464646465,-0.024262930537624308,-0.023314678983744452,-0.023796961906748328
65,6.565656565656567,-0.024676034878804577,-0.02371956971638606,-0.024204939950370815
66,6.666666666666668,-0.02508941330128724,-0.024122198173957422,-0.0246142123840624
67,6.767676767676768,-0.025504599023984,-0.02452745254289875,-0.025024571030602405
68,6.868686868686869,-0.02591337766157135,-0.024935593053453924,-0.02543584693291578
69,6.969696969696971,-0.026336110014350773,-0.025343957969440528,-0.025848048983510376
70,7.070707070707072,-0.02675157115843181,-0.025745433016314993,-0.02626151057130127
71,7.171717171717172,-0.02716814651678871,-0.026155726771556097,-0.026675653549562264
72,7.272727272727273,-0.027591827841666566,-0.02656086301303232,-0.02709070127933806
73,7.373737373737375,-0.028015753930083053,-0.02696526453249431,-0.02750664642361642
74,7.474747474747476,-0.028443885761603876,-0.02737410407714146,-0.02792301950531254
75,7.575757575757577,-0.028865295745085198,-0.02778090067819283,-0.02834021418530202
76,7.676767676767677,-0.029284245801401914,-0.028186090109929843,-0.028758221295407102
77,7.777777777777779,-0.029710522730694404,-0.02859316073494767,-0.02917642130020974
78,7.87878787878788,-0.03013604427086356,-0.02900241311870465,-0.02959553333346263
79,7.979797979797981,-0.0305550031420769,-0.02941350411494919,-0.030015184767108828
80,8.080808080808081,-0.030980727892777754,-0.02981994901257921,-0.030434783759771877
81,8.181818181818183,-0.03140207129036869,-0.03022382339577573,-0.030854603208713537
82,8.282828282828284,-0.03182471235339679,-0.030629447254153223,-0.031274498125372814
83,8.383838383838384,-0.03224344753118095,-0.03103528144244239,-0.03169446177993787
84,8.484848484848486,-0.03267193423666502,-0.031439082388071894,-0.03211520083851092
85,8.585858585858587,-0.033090648349904855,-0.03184461462895366,-0.032535326870517314
86,8.686868686868689,-0.03351142168102278,-0.03224644445692808,-0.032954996746941426
87,8.787878787878789,-0.03393916969258183,-0.03264457128373977,-0.033374941108740806
88,8.88888888888889,-0.03436288895248014,-0.03304492711928177,-0.03379404190614226
89,8.989898989898991,-0.03477933103570309,-0.033441626815585844,-0.034212866827017595
90,9.090909090909092,-0.03520332865326477,-0.03383805812659534,-0.03463100071474417
91,9.191919191919194,-0.03563117955954257,-0.034232883452199034,-0.03504824554246256
92,9.292929292929294,-0.036040623362496284,-0.03463094399733639,-0.035465067899216315
93,9.393939393939394,-0.03646781550709148,-0.035021272620671846,-0.035880720953082396
94,9.494949494949497,-0.03688228164156212,-0.035410814339490476,-0.03629534573160981
95,9.595959595959597,-0.03730281339091808,-0.03579543947349295,-0.036708787618689995
96,9.696969696969699,-0.03772013030773516,-0.03617756856342263,-0.03712147216130651
97,9.7979797979798,-0.03814068759451554,-0.03655536700724353,-0.03753183974931962
98,9.8989898989899,-0.03856207753169506,-0.036922557841026,-0.03794108001224059
99,10.0,-0.03897796781408858,-0.03729165850309816,-0.03834894831218997
