,samples_load,percentiles_post_error_l,percentiles_post_error_u,mean_prediction_post_error
0,0.0,-0.0001495512072687452,1.209638072263545e-05,-4.092089449766975e-05
1,0.10101010101010102,-0.0004742019763352952,-0.00031476019184249705,-0.00038560171384520784
2,0.20202020202020204,-0.0008069753194123336,-0.0006474585643401847,-0.0007305862371605363
3,0.3030303030303031,-0.0011476558574321236,-0.000982191107625151,-0.0010760119586715514
4,0.4040404040404041,-0.0015019479316900255,-0.001318906460869255,-0.0014227820625809576
5,0.5050505050505051,-0.0018635711117081716,-0.0016568572582993323,-0.0017698550538870219
6,0.6060606060606062,-0.0022273440949332145,-0.001992165712071958,-0.0021181863665663955
7,0.7070707070707072,-0.002594050606362693,-0.0023299851484403283,-0.0024671465998722442
8,0.8080808080808082,-0.002958798974916792,-0.002670102692830117,-0.0028167120614626
9,0.9090909090909092,-0.003322342387605894,-0.0030065422276942875,-0.0031674578807685933
10,1.0101010101010102,-0.003690649595524436,-0.0033433861660130985,-0.0035191389582479022
11,1.1111111111111112,-0.004057707814972415,-0.003683927163919752,-0.003871657683750584
12,1.2121212121212124,-0.004427019438156423,-0.004024302126999017,-0.004225194758219339
13,1.3131313131313134,-0.0047959742939085925,-0.004368756350650502,-0.004579434202896237
14,1.4141414141414144,-0.0051610053685949096,-0.004712915211913522,-0.0049344222808941325
15,1.5151515151515154,-0.0055315681301812605,-0.005054190189437709,-0.00529052103336105
16,1.6161616161616164,-0.005902351683827406,-0.005395769176599858,-0.005647483163949053
17,1.7171717171717173,-0.0062741584462785134,-0.005741345259469749,-0.006005635428342091
18,1.8181818181818183,-0.006647787326485583,-0.006089113905829225,-0.006364903863478617
19,1.9191919191919193,-0.0070193391517087336,-0.006437413647800595,-0.00672456603066558
20,2.0202020202020203,-0.007393527128252915,-0.006782536421507125,-0.007085698268712444
21,2.1212121212121215,-0.007768280017122249,-0.007135568389364261,-0.007447331474441137
22,2.2222222222222223,-0.008148300073888354,-0.007487612151273666,-0.007810441078159845
23,2.3232323232323235,-0.008522038569499409,-0.007833727526657222,-0.008174122203359517
24,2.4242424242424248,-0.008901291899023021,-0.008184409267617149,-0.008538817501082693
25,2.5252525252525255,-0.009275981352848786,-0.008540860095195722,-0.008904977208811539
26,2.6262626262626267,-0.009659229116156031,-0.008889566660479131,-0.009271774294265797
27,2.7272727272727275,-0.010037941367841214,-0.00924817488492687,-0.009639585214428573
28,2.8282828282828287,-0.010419506927171017,-0.00960249426120599,-0.010007854953160792
29,2.9292929292929295,-0.010800733175536403,-0.009958126500848506,-0.010377730721659905
30,3.0303030303030307,-0.011180483597280723,-0.010319048777157976,-0.010748341195204458
31,3.1313131313131315,-0.011562550859271348,-0.010670077406433017,-0.011119926601752605
32,3.2323232323232327,-0.011954758630757534,-0.011035294704014605,-0.011492721621606628
33,3.333333333333334,-0.012337908567485054,-0.011393328034874202,-0.011865863478522256
34,3.4343434343434347,-0.01272490662238082,-0.011752436551593812,-0.012240877066724875
35,3.535353535353536,-0.01311358166177795,-0.01211697645934812,-0.012616172123440786
36,3.6363636363636367,-0.013501562764297639,-0.01247905802025716,-0.012992585112003406
37,3.737373737373738,-0.01388971000821843,-0.012843238542593022,-0.013370311923394983
38,3.8383838383838387,-0.014283439241984261,-0.013209651201121952,-0.013748392842840932
39,3.93939393939394,-0.014673927291943578,-0.013576892636695556,-0.014127584503653071
40,4.040404040404041,-0.015068752412203464,-0.013943394873886255,-0.014507667172482303
41,4.141414141414142,-0.015457686494084185,-0.01431088718821849,-0.01488887235592601
42,4.242424242424243,-0.015856315277780645,-0.01467693528155855,-0.015270842213617051
43,4.343434343434344,-0.016245690577477635,-0.01505418041294158,-0.015653930309636025
44,4.444444444444445,-0.01664455354003844,-0.015420096200033333,-0.01603762492176521
45,4.545454545454546,-0.017042695447600408,-0.015791972775659763,-0.01642224354012015
46,4.646464646464647,-0.017436351373049202,-0.016165505983377255,-0.01680811065243284
47,4.747474747474748,-0.017839879284515567,-0.01653890430071095,-0.017194511260762924
48,4.8484848484848495,-0.01823839256044641,-0.016911540866126718,-0.017582108243484412
49,4.94949494949495,-0.01863569594811721,-0.017289426777367393,-0.017970327883887485
50,5.050505050505051,-0.019036797094112733,-0.01766028150689511,-0.018359557576260763
51,5.151515151515152,-0.01944016043465076,-0.018038528272270187,-0.018749856218503117
52,5.2525252525252535,-0.019843056510720932,-0.018418114057242117,-0.019140501160369753
53,5.353535353535354,-0.020243036486575633,-0.01879634897840706,-0.019532494489619166
54,5.454545454545455,-0.020642807962268597,-0.01917703688554924,-0.0199249861233316
55,5.555555555555556,-0.021055954805596685,-0.019554996865494258,-0.020318859518546752
56,5.6565656565656575,-0.021460630410476213,-0.019929176210226836,-0.02071322275294965
57,5.757575757575759,-0.021865647608952012,-0.020317488674961554,-0.02110825290916353
58,5.858585858585859,-0.022275190391631852,-0.020701241673896805,-0.021504326895278515
59,5.95959595959596,-0.02268747497440663,-0.021084320953004904,-0.02190137503344445
60,6.060606060606061,-0.023094974850504706,-0.021467705936422884,-0.02229935436950856
61,6.161616161616163,-0.023507904206176312,-0.021858912185344453,-0.022697835856896338
62,6.262626262626263,-0.02391841485124087,-0.022234412652209514,-0.02309717923020996
63,6.363636363636364,-0.02432585590237642,-0.02262648253685192,-0.02349756232159893
64,6.464646464646465,-0.02474701479658058,-0.023011178451722167,-0.02389865244369603
65,6.565656565656567,-0.02516046865087243,-0.0233960502245943,-0.024300885960192534
66,6.666666666666668,-0.025576833902073277,-0.023788283020033794,-0.0247037474998795
67,6.767676767676768,-0.025994408918357328,-0.02417704841121737,-0.02510756388597756
68,6.868686868686869,-0.02641431493713262,-0.02457367670194532,-0.02551163757853805
69,6.969696969696971,-0.026832092853875014,-0.024963590957495944,-0.025917190229102743
70,7.070707070707072,-0.02725556820889563,-0.025354473906952054,-0.026323376421981216
71,7.171717171717172,-0.027677341461369576,-0.025754774745819876,-0.026730837860768304
72,7.272727272727273,-0.028101886045733722,-0.026144973844901314,-0.02713825921664223
73,7.373737373737375,-0.028524947198358443,-0.026545124799015513,-0.027547270915375437
74,7.474747474747476,-0.028946386638602377,-0.02693447579095593,-0.027957027057893068
75,7.575757575757577,-0.02937218771334942,-0.02733581747001425,-0.028367406502809105
76,7.676767676767677,-0.029795912649478132,-0.027732020061920975,-0.02877890970142599
77,7.777777777777779,-0.030217241649477897,-0.028123212583296423,-0.029191150029246774
78,7.87878787878788,-0.030646382047880345,-0.02852390862892026,-0.029604305965568286
79,7.979797979797981,-0.031071078404606257,-0.028923760626251117,-0.030017983613496384
80,8.080808080808081,-0.03150292094862223,-0.029320043361149774,-0.03043277613209632
81,8.181818181818183,-0.03193461776495152,-0.029720171523721535,-0.030848660783151502
82,8.282828282828284,-0.03236486408986071,-0.030115662394344524,-0.031265572804991745
83,8.383838383838384,-0.032796869758443134,-0.03052355726435354,-0.03168284148837797
84,8.484848484848486,-0.03322711550977178,-0.030925955005703422,-0.03210148477872984
85,8.585858585858587,-0.03366031245375174,-0.031318021577132364,-0.03252106016458917
86,8.686868686868689,-0.03410360794358676,-0.03172617876585484,-0.032941000085718194
87,8.787878787878789,-0.03454034414238417,-0.032118469514590006,-0.03336249523579267
88,8.88888888888889,-0.03497778876752654,-0.032525879607831064,-0.03378448555563291
89,8.989898989898991,-0.03542304452118079,-0.032924874681307045,-0.03420771574634136
90,9.090909090909092,-0.03586509565909194,-0.03334209338617755,-0.034632003293134164
91,9.191919191919194,-0.03631624710851876,-0.03375026370524511,-0.03505709908344779
92,9.292929292929294,-0.036755326027013174,-0.034157924488775145,-0.03548313187882309
93,9.393939393939394,-0.03719516069935374,-0.034568187621916956,-0.035910028558057853
94,9.494949494949497,-0.03764575044854235,-0.0349747609006646,-0.03633814272468342
95,9.595959595959597,-0.03809922109890573,-0.03538059332924298,-0.03676709730147968
96,9.696969696969699,-0.03854717140862994,-0.03578497346818247,-0.037197338036695865
97,9.7979797979798,-0.03899414595647948,-0.03619684507357855,-0.03762769002900085
98,9.8989898989899,-0.0394522776512143,-0.03659921631437932,-0.03806029584970203
99,10.0,-0.03990924437516638,-0.03701468853783523,-0.03849344232370786
