,samples_load,percentiles_post_error_l,percentiles_post_error_u,mean_prediction_post_error
0,0.0,-4.387793322566779e-05,2.016815391941992e-05,-9.992058769144067e-06
1,0.10101010101010102,-7.524769715339538e-05,1.4946026856337143e-05,-3.367683528664343e-05
2,0.20202020202020204,-0.00011250214436824544,1.1666383280885176e-05,-5.619501808341536e-05
3,0.3030303030303031,-0.00015119442485373618,1.0595475447234464e-05,-7.759711482489778e-05
4,0.4040404040404041,-0.00019062538166800556,7.0903861257508205e-06,-9.875259496270223e-05
5,0.5050505050505051,-0.00022525134494107615,8.6931651967903e-06,-0.00011862955791022459
6,0.6060606060606062,-0.00026043917295335146,7.033775920010267e-06,-0.00013820147938156685
7,0.7070707070707072,-0.0002966325898118104,7.785339431041914e-06,-0.00015684258089288327
8,0.8080808080808082,-0.00032868243649910266,9.37198542466265e-06,-0.00017454332545258555
9,0.9090909090909092,-0.00035990581700537735,9.368770937178605e-06,-0.00019189380692617594
10,1.0101010101010102,-0.00039438242847218355,1.206167936193143e-05,-0.0002086601601021303
11,1.1111111111111112,-0.0004244537636845941,1.0575013209430624e-05,-0.0002247573196033258
12,1.2121212121212124,-0.0004550914378806805,1.3623471802616842e-05,-0.00024040094050184688
13,1.3131313131313134,-0.0004861062124665005,1.1727747176720604e-05,-0.0002552997004942659
14,1.4141414141414144,-0.0005178604376250693,1.7757069071789083e-05,-0.0002695174703314703
15,1.5151515151515154,-0.000545261456605301,2.237245287228986e-05,-0.00028344725938848415
16,1.6161616161616164,-0.0005752060078985942,2.26681242288047e-05,-0.0002968784039822867
17,1.7171717171717173,-0.0006042581631777292,2.5868226185106293e-05,-0.0003101597924787346
18,1.8181818181818183,-0.0006339742151674312,2.6424363476956375e-05,-0.0003232513614871414
19,1.9191919191919193,-0.0006651684373632189,3.209333222763498e-05,-0.0003354857856958414
20,2.0202020202020203,-0.0006945790123050725,3.532112597027128e-05,-0.0003479639841960679
21,2.1212121212121215,-0.000723876781401378,3.796944932144688e-05,-0.00035973801559333984
22,2.2222222222222223,-0.00075273158348145,4.547988150797398e-05,-0.00037183980146332556
23,2.3232323232323235,-0.0007827427812625117,4.897423554444129e-05,-0.0003834176821563584
24,2.4242424242424248,-0.000806400548589998,5.637069789252999e-05,-0.0003949405550393317
25,2.5252525252525255,-0.0008405674501988515,5.39210682762136e-05,-0.0004069063962559133
26,2.6262626262626267,-0.0008674357009055359,5.9844687086746905e-05,-0.00041853194588994215
27,2.7272727272727275,-0.0008980545323326504,6.740669434382721e-05,-0.0004302377446029137
28,2.8282828282828287,-0.000923883551440604,6.713151058241477e-05,-0.00044151891186557617
29,2.9292929292929295,-0.000955461054198336,7.172351986362878e-05,-0.0004535630994857819
30,3.0303030303030307,-0.000980395508181159,7.601607538250464e-05,-0.00046554984252758855
31,3.1313131313131315,-0.0010084771001945068,8.580128564229297e-05,-0.000477762239405327
32,3.2323232323232327,-0.0010414408982469313,8.309067615667192e-05,-0.0004904793492561847
33,3.333333333333334,-0.0010745538471843051,8.858404443928984e-05,-0.0005028782860214108
34,3.4343434343434347,-0.0011036341627362084,9.07228655556442e-05,-0.0005165246093474004
35,3.535353535353536,-0.0011329385107583278,8.907842069683004e-05,-0.0005298800812605047
36,3.6363636363636367,-0.0011674827834564395,9.185172616863015e-05,-0.000543818151830609
37,3.737373737373738,-0.001199284338477896,9.743002015548406e-05,-0.0005585664763954132
38,3.8383838383838387,-0.0012331496593680428,9.554601571735974e-05,-0.0005732136833294215
39,3.93939393939394,-0.0012597566397850777,9.781703654738033e-05,-0.0005885592354109014
40,4.040404040404041,-0.0012957430893934267,0.00010197719880390891,-0.0006044069420842209
41,4.141414141414142,-0.0013328240748195547,0.00010218236255558701,-0.0006210223161084632
42,4.242424242424243,-0.0013690134422682787,0.00010437378747429681,-0.0006380741917552981
43,4.343434343434344,-0.0014001252709590214,0.0001007895524041361,-0.0006559403942450228
44,4.444444444444445,-0.0014403546619838551,0.00010196274914159033,-0.000674143943729883
45,4.545454545454546,-0.0014731130856301688,0.00010353609505692375,-0.0006930149963908804
46,4.646464646464647,-0.0015142557741832975,0.0001032075441449644,-0.0007128847018844744
47,4.747474747474748,-0.0015578841282104243,9.749810027049284e-05,-0.0007330658395801068
48,4.8484848484848495,-0.001595876037018186,0.00010009478215891821,-0.000754234312753656
49,4.94949494949495,-0.0016360966249144605,9.568799685349757e-05,-0.0007758153821050901
50,5.050505050505051,-0.0016805074900564311,9.67248273025161e-05,-0.0007982022864203888
51,5.151515151515152,-0.0017165662403948157,9.195781467248812e-05,-0.000821450585294118
52,5.2525252525252535,-0.0017689582909269092,9.136627964260925e-05,-0.0008448318253599919
53,5.353535353535354,-0.001804444161021935,8.363844900934323e-05,-0.0008693318131913767
54,5.454545454545455,-0.0018525307047468735,8.77349694856681e-05,-0.0008940748636013583
55,5.555555555555556,-0.001900655194270251,7.991964117209353e-05,-0.0009199293041091324
56,5.6565656565656575,-0.0019439740747733574,7.049187297021489e-05,-0.0009459798248662644
57,5.757575757575759,-0.0019916131791622893,6.33175125477147e-05,-0.0009723699217139551
58,5.858585858585859,-0.002035363244858928,5.87641607156785e-05,-0.0009994359925841333
59,5.95959595959596,-0.0020864749217411422,5.2538456670710976e-05,-0.0010270617033847703
60,6.060606060606061,-0.002135448288557954,4.7616996544247275e-05,-0.0010551592767638503
61,6.161616161616163,-0.0021813120967210833,3.4458206025806164e-05,-0.0010832429825028338
62,6.262626262626263,-0.0022308536377044124,3.064939087866523e-05,-0.001111610474894856
63,6.363636363636364,-0.0022826888708427076,2.0246972008171155e-05,-0.0011403718750909646
64,6.464646464646465,-0.002332959882227312,1.5257884605051346e-05,-0.0011691191472350216
65,6.565656565656567,-0.0023879828463479226,1.0214148704952063e-05,-0.0011982033183119793
66,6.666666666666668,-0.0024318029830796414,-5.765737119697508e-07,-0.0012270261038287186
67,6.767676767676768,-0.0024896456069355196,-3.651099105179425e-06,-0.0012558268278025713
68,6.868686868686869,-0.0025266082341519054,-1.2275819575273552e-05,-0.00128380541387168
69,6.969696969696971,-0.00257938114606948,-2.000387840424186e-05,-0.0013120812267335602
70,7.070707070707072,-0.0026223899367620986,-2.6592510155673574e-05,-0.0013396938465983347
71,7.171717171717172,-0.00267513317566492,-3.930324524040911e-05,-0.001367162648436413
72,7.272727272727273,-0.0027127805453257764,-4.114065056767552e-05,-0.0013930480808409488
73,7.373737373737375,-0.002761041657384273,-4.3743652512761344e-05,-0.0014188529832002271
74,7.474747474747476,-0.0027981051730849435,-4.7665408057018316e-05,-0.0014435971321732875
75,7.575757575757577,-0.002839017300417153,-3.804803891005738e-05,-0.0014670179172296806
76,7.676767676767677,-0.00288835502609388,-4.511317907308251e-05,-0.001489464866201865
77,7.777777777777779,-0.0029287220128275246,-3.3801625790701306e-05,-0.0015103863948483056
78,7.87878787878788,-0.0029611593422229194,-3.077791568710773e-05,-0.0015298046147445789
79,7.979797979797981,-0.0030077132737209157,-2.2400496725071488e-05,-0.0015471758525873694
80,8.080808080808081,-0.003040532026564434,-1.9373833091102223e-05,-0.0015629214481473121
81,8.181818181818183,-0.0030791876030378733,-5.770652784598909e-06,-0.0015768188756387208
82,8.282828282828284,-0.0031089897041486876,1.78777555759675e-05,-0.001588615940233973
83,8.383838383838384,-0.003147957104545875,2.1364742290875587e-05,-0.0015974714144649255
84,8.484848484848486,-0.0031829015985969412,5.4571778231984474e-05,-0.001604211026742384
85,8.585858585858587,-0.003225992352964094,8.248927911195339e-05,-0.0016081801378074324
86,8.686868686868689,-0.0032664779791367164,0.00011703494456250528,-0.0016086292109230465
87,8.787878787878789,-0.0033010348471464016,0.00015191037908520355,-0.0016065344839468467
88,8.88888888888889,-0.003321248998139095,0.00019309381660307311,-0.0016006168577004179
89,8.989898989898991,-0.0033543148927448435,0.0002484852679318923,-0.0015914248513036083
90,9.090909090909092,-0.0033785440801683913,0.0003094451542156428,-0.0015785494313402312
91,9.191919191919194,-0.003401921574457129,0.00036213145880606694,-0.0015615204530263077
92,9.292929292929294,-0.003396319047594392,0.00043218798945266536,-0.0015402431519056755
93,9.393939393939394,-0.0034068515395501513,0.0005090707758820602,-0.0015144249542041494
94,9.494949494949497,-0.0034087790015486876,0.0005752037923780592,-0.0014842007564706162
95,9.595959595959597,-0.003415117189860783,0.0006597734548921105,-0.001448956943539652
96,9.696969696969699,-0.0034095133893245542,0.0007384426372687904,-0.0014089035915459027
97,9.7979797979798,-0.0034199163590787774,0.000833978888792628,-0.001362644321184934
98,9.8989898989899,-0.003421679814771887,0.0009542837819396957,-0.0013120901481892004
99,10.0,-0.003405606322262771,0.0010743529352974905,-0.0012552898677038748
